//=======================================================================
//
// This confidential and proprietary software may be used only as
// authorized by a licensing agreement from Siliconarts Inc.
//
//   (C) Copyright 2010 ~ 2013  Siliconarts Inc. ALL RIGHTS RESERVED
//
// The entire notice above must be reproduced on all authorized
// copies and copies may only be made to the extent permitted
// by a licensing agreement from Siliconarts.
//
// Project : Example
// DATE    : 4/10/2013 Wed
// Author  : Sang Gon, Kim (sgkim@siliconarts.co.kr)
//
//=======================================================================

float g_leafWeight[] = 
{ 
	0.993366f, 0.006634f, 0.000000f, 
	0.987089f, 0.012910f, 0.000000f, 
	0.939655f, 0.060345f, 0.000000f, 
	0.939655f, 0.060345f, 0.000000f, 
	0.959243f, 0.040757f, 0.000000f, 
	0.993366f, 0.006634f, 0.000000f, 
	0.939655f, 0.060345f, 0.000000f, 
	0.987089f, 0.012910f, 0.000000f, 
	0.998503f, 0.001497f, 0.000000f, 
	0.998503f, 0.001497f, 0.000000f, 
	0.971498f, 0.028502f, 0.000000f, 
	0.939655f, 0.060345f, 0.000000f, 
	0.556517f, 0.443483f, 0.000000f, 
	0.500000f, 0.500000f, 0.000000f, 
	0.498910f, 0.498910f, 0.002180f, 
	0.498910f, 0.498910f, 0.002180f, 
	0.467418f, 0.531967f, 0.000615f, 
	0.556517f, 0.443483f, 0.000000f, 
	0.498910f, 0.498910f, 0.002180f, 
	0.500000f, 0.500000f, 0.000000f, 
	0.558096f, 0.441904f, 0.000000f, 
	0.558096f, 0.441904f, 0.000000f, 
	0.473449f, 0.526394f, 0.000156f, 
	0.498910f, 0.498910f, 0.002180f, 
	0.010009f, 0.558439f, 0.431553f, 
	0.195633f, 0.701696f, 0.102672f, 
	0.263914f, 0.600694f, 0.135392f, 
	0.263914f, 0.600694f, 0.135392f, 
	0.015592f, 0.492204f, 0.492204f, 
	0.010009f, 0.558439f, 0.431553f, 
	0.263914f, 0.600694f, 0.135392f, 
	0.206454f, 0.698631f, 0.094916f, 
	0.008643f, 0.590823f, 0.400534f, 
	0.008643f, 0.590823f, 0.400534f, 
	0.015592f, 0.492204f, 0.492204f, 
	0.263914f, 0.600694f, 0.135392f, 
	0.000000f, 0.000311f, 0.999689f, 
	0.000000f, 0.006863f, 0.993137f, 
	0.000000f, 0.007546f, 0.992454f, 
	0.000000f, 0.007546f, 0.992454f, 
	0.000000f, 0.000173f, 0.999827f, 
	0.000000f, 0.000311f, 0.999689f, 
	0.000000f, 0.007546f, 0.992454f, 
	0.000000f, 0.004003f, 0.995997f, 
	0.000000f, 0.000133f, 0.999867f, 
	0.000000f, 0.000133f, 0.999867f, 
	0.000000f, 0.000173f, 0.999827f, 
	0.000000f, 0.007546f, 0.992454f, 
	0.000000f, 0.000173f, 0.999827f, 
	0.000000f, 0.000000f, 1.000000f, 
	0.000000f, 0.000000f, 1.000000f, 
	0.000000f, 0.000000f, 1.000000f, 
	0.000000f, 0.000311f, 0.999689f, 
	0.000000f, 0.000173f, 0.999827f, 
	0.000000f, 0.000173f, 0.999827f, 
	0.000000f, 0.000133f, 0.999867f, 
	0.000000f, 0.000000f, 1.000000f, 
	0.000000f, 0.000000f, 1.000000f, 
	0.000000f, 0.000000f, 1.000000f, 
	0.000000f, 0.000173f, 0.999827f, 
	0.000000f, 0.176033f, 0.823967f, 
	0.000000f, 0.219626f, 0.780374f, 
	0.000000f, 0.058409f, 0.941591f, 
	0.000000f, 0.058409f, 0.941591f, 
	0.000000f, 0.037572f, 0.962428f, 
	0.000000f, 0.176033f, 0.823967f, 
	0.000000f, 0.219626f, 0.780374f, 
	0.000000f, 0.194228f, 0.805771f, 
	0.000000f, 0.055132f, 0.944868f, 
	0.000000f, 0.055132f, 0.944868f, 
	0.000000f, 0.058409f, 0.941591f, 
	0.000000f, 0.219626f, 0.780374f, 
	0.832177f, 0.167823f, 0.000000f, 
	0.756354f, 0.243646f, 0.000000f, 
	0.500000f, 0.500000f, 0.000000f, 
	0.500000f, 0.500000f, 0.000000f, 
	0.556517f, 0.443483f, 0.000000f, 
	0.832177f, 0.167823f, 0.000000f, 
	0.500000f, 0.500000f, 0.000000f, 
	0.756354f, 0.243646f, 0.000000f, 
	0.834406f, 0.165594f, 0.000000f, 
	0.834406f, 0.165594f, 0.000000f, 
	0.558096f, 0.441904f, 0.000000f, 
	0.500000f, 0.500000f, 0.000000f, 
	0.195633f, 0.701696f, 0.102672f, 
	0.467418f, 0.531967f, 0.000615f, 
	0.498910f, 0.498910f, 0.002180f, 
	0.498910f, 0.498910f, 0.002180f, 
	0.263914f, 0.600694f, 0.135392f, 
	0.195633f, 0.701696f, 0.102672f, 
	0.498910f, 0.498910f, 0.002180f, 
	0.473449f, 0.526394f, 0.000156f, 
	0.206454f, 0.698631f, 0.094916f, 
	0.206454f, 0.698631f, 0.094916f, 
	0.263914f, 0.600694f, 0.135392f, 
	0.498910f, 0.498910f, 0.002180f, 
	0.000000f, 0.500000f, 0.500000f, 
	0.010009f, 0.558439f, 0.431553f, 
	0.015592f, 0.492204f, 0.492204f, 
	0.015592f, 0.492204f, 0.492204f, 
	0.000000f, 0.500000f, 0.500000f, 
	0.000000f, 0.500000f, 0.500000f, 
	0.000000f, 0.370464f, 0.629536f, 
	0.000000f, 0.500000f, 0.500000f, 
	0.000000f, 0.500000f, 0.500000f, 
	0.000000f, 0.500000f, 0.500000f, 
	0.000000f, 0.432480f, 0.567520f, 
	0.000000f, 0.370464f, 0.629536f, 
	0.000000f, 0.058409f, 0.941591f, 
	0.000000f, 0.007546f, 0.992454f, 
	0.000000f, 0.006863f, 0.993137f, 
	0.000000f, 0.006863f, 0.993137f, 
	0.000000f, 0.037572f, 0.962428f, 
	0.000000f, 0.058409f, 0.941591f, 
	0.015592f, 0.492204f, 0.492204f, 
	0.008643f, 0.590823f, 0.400534f, 
	0.000000f, 0.497514f, 0.502486f, 
	0.000000f, 0.497514f, 0.502486f, 
	0.000000f, 0.500000f, 0.500000f, 
	0.015592f, 0.492204f, 0.492204f, 
	0.000000f, 0.500000f, 0.500000f, 
	0.000000f, 0.497514f, 0.502486f, 
	0.000000f, 0.358760f, 0.641240f, 
	0.000000f, 0.358760f, 0.641240f, 
	0.000000f, 0.432480f, 0.567520f, 
	0.000000f, 0.500000f, 0.500000f, 
	0.000000f, 0.055132f, 0.944868f, 
	0.000000f, 0.004003f, 0.995997f, 
	0.000000f, 0.007546f, 0.992454f, 
	0.000000f, 0.007546f, 0.992454f, 
	0.000000f, 0.058409f, 0.941591f, 
	0.000000f, 0.055132f, 0.944868f, 
	0.000000f, 0.370464f, 0.629536f, 
	0.000000f, 0.432480f, 0.567520f, 
	0.000000f, 0.219626f, 0.780374f, 
	0.000000f, 0.219626f, 0.780374f, 
	0.000000f, 0.176033f, 0.823967f, 
	0.000000f, 0.370464f, 0.629536f, 
	0.000000f, 0.432480f, 0.567520f, 
	0.000000f, 0.358760f, 0.641240f, 
	0.000000f, 0.194228f, 0.805771f, 
	0.000000f, 0.194228f, 0.805771f, 
	0.000000f, 0.219626f, 0.780374f, 
	0.000000f, 0.432480f, 0.567520f, 
	0.999985f, 0.000015f, 0.000000f, 
	0.999907f, 0.000093f, 0.000000f, 
	0.999000f, 0.001000f, 0.000000f, 
	0.999000f, 0.001000f, 0.000000f, 
	0.998808f, 0.001192f, 0.000000f, 
	0.999985f, 0.000015f, 0.000000f, 
	0.756354f, 0.243646f, 0.000000f, 
	0.832177f, 0.167823f, 0.000000f, 
	0.959243f, 0.040757f, 0.000000f, 
	0.959243f, 0.040757f, 0.000000f, 
	0.939655f, 0.060345f, 0.000000f, 
	0.756354f, 0.243646f, 0.000000f, 
	0.999000f, 0.001000f, 0.000000f, 
	0.999907f, 0.000093f, 0.000000f, 
	0.999961f, 0.000039f, 0.000000f, 
	0.999961f, 0.000039f, 0.000000f, 
	0.999812f, 0.000188f, 0.000000f, 
	0.999000f, 0.001000f, 0.000000f, 
	0.971498f, 0.028502f, 0.000000f, 
	0.834406f, 0.165594f, 0.000000f, 
	0.756354f, 0.243646f, 0.000000f, 
	0.756354f, 0.243646f, 0.000000f, 
	0.939655f, 0.060345f, 0.000000f, 
	0.971498f, 0.028502f, 0.000000f, 
	1.000000f, 0.000000f, 0.000000f, 
	1.000000f, 0.000000f, 0.000000f, 
	1.000000f, 0.000000f, 0.000000f, 
	1.000000f, 0.000000f, 0.000000f, 
	1.000000f, 0.000000f, 0.000000f, 
	1.000000f, 0.000000f, 0.000000f, 
	0.987089f, 0.012910f, 0.000000f, 
	0.993366f, 0.006634f, 0.000000f, 
	0.998808f, 0.001192f, 0.000000f, 
	0.998808f, 0.001192f, 0.000000f, 
	0.999000f, 0.001000f, 0.000000f, 
	0.987089f, 0.012910f, 0.000000f, 
	1.000000f, 0.000000f, 0.000000f, 
	1.000000f, 0.000000f, 0.000000f, 
	1.000000f, 0.000000f, 0.000000f, 
	1.000000f, 0.000000f, 0.000000f, 
	1.000000f, 0.000000f, 0.000000f, 
	1.000000f, 0.000000f, 0.000000f, 
	0.999812f, 0.000188f, 0.000000f, 
	0.998503f, 0.001497f, 0.000000f, 
	0.987089f, 0.012910f, 0.000000f, 
	0.987089f, 0.012910f, 0.000000f, 
	0.999000f, 0.001000f, 0.000000f, 
	0.999812f, 0.000188f, 0.000000f, 
	1.000000f, 0.000000f, 0.000000f, 
	1.000000f, 0.000000f, 0.000000f, 
	1.000000f, 0.000000f, 0.000000f, 
	1.000000f, 0.000000f, 0.000000f, 
	1.000000f, 0.000000f, 0.000000f, 
	1.000000f, 0.000000f, 0.000000f, 
	0.999907f, 0.000093f, 0.000000f, 
	0.999985f, 0.000015f, 0.000000f, 
	1.000000f, 0.000000f, 0.000000f, 
	1.000000f, 0.000000f, 0.000000f, 
	1.000000f, 0.000000f, 0.000000f, 
	0.999907f, 0.000093f, 0.000000f, 
	1.000000f, 0.000000f, 0.000000f, 
	1.000000f, 0.000000f, 0.000000f, 
	1.000000f, 0.000000f, 0.000000f, 
	1.000000f, 0.000000f, 0.000000f, 
	1.000000f, 0.000000f, 0.000000f, 
	1.000000f, 0.000000f, 0.000000f, 
	1.000000f, 0.000000f, 0.000000f, 
	0.999961f, 0.000039f, 0.000000f, 
	0.999907f, 0.000093f, 0.000000f, 
	0.999907f, 0.000093f, 0.000000f, 
	1.000000f, 0.000000f, 0.000000f, 
	1.000000f, 0.000000f, 0.000000f, 
}; 

MatrixP g_leafMaxrix[] = 
{ 
	{1.000000f, 0.000000f, 0.000000f, 0.000000f, 0.000000f, 1.000000f, 0.000000f, 0.000000f, 0.000000f, 0.000000f, 1.000000f, 0.000000f, 0.000000f, 0.000000f, 0.000000f, 1.000000f}, 
	{1.000000f, 0.000000f, 0.000000f, 0.000000f, 0.000000f, 1.000000f, 0.000000f, 0.000000f, 0.000000f, 0.000000f, 1.000000f, 0.000000f, 0.000000f, 0.000000f, 0.000000f, 1.000000f}, 
	{1.000000f, 0.000000f, 0.000000f, 0.000000f, 0.000000f, 1.000000f, 0.000000f, 0.000000f, 0.000000f, 0.000000f, 1.000000f, 0.000000f, 0.000000f, 0.000000f, 0.000000f, 1.000000f}, 

	{1.000000f, -0.000000f, 0.000000f, 0.000000f, 0.000000f, 1.000000f, 0.000000f, 0.000000f, 0.000000f, 0.000000f, 1.000000f, 0.000000f, 0.000000f, 0.000000f, -0.000000f, 1.000000f}, 
	{1.000000f, 0.000000f, 0.000000f, 0.000000f, -0.000000f, 1.000000f, -0.000000f, 0.000000f, 0.000000f, 0.000000f, 1.000000f, 0.000000f, -0.000000f, -0.000000f, -0.000000f, 1.000000f}, 
	{1.000000f, 0.000000f, 0.000000f, 0.000000f, -0.000000f, 1.000000f, -0.000000f, 0.000000f, 0.000000f, 0.000000f, 1.000000f, 0.000000f, -0.000000f, -0.000000f, -0.000000f, 1.000000f}, 

	{1.000000f, -0.000000f, 0.000176f, 0.000000f, -0.000000f, 0.999995f, 0.003124f, 0.000000f, -0.000176f, -0.003124f, 0.999995f, 0.000000f, 0.000001f, 0.000011f, -0.001321f, 1.000000f}, 
	{0.999936f, -0.000671f, 0.013281f, 0.000000f, 0.000217f, 0.999544f, 0.018764f, 0.000000f, -0.007067f, -0.011364f, 1.000212f, 0.000000f, 0.009574f, 0.012045f, -0.014526f, 1.000000f}, 
	{0.998251f, -0.003146f, 0.023449f, 0.000000f, -0.001430f, 0.997032f, 0.030759f, 0.000000f, -0.015684f, -0.021814f, 1.003695f, 0.000000f, 0.033441f, 0.041628f, -0.038284f, 1.000000f}, 

	{1.000000f, -0.000002f, 0.000439f, 0.000000f, -0.000002f, 0.999970f, 0.007792f, 0.000000f, -0.000439f, -0.007792f, 0.999970f, 0.000000f, 0.000002f, 0.000035f, -0.003295f, 1.000000f}, 
	{0.999664f, -0.002028f, 0.033099f, 0.000000f, 0.000328f, 0.998423f, 0.046793f, 0.000000f, -0.017631f, -0.028332f, 1.000002f, 0.000000f, 0.024061f, 0.030379f, -0.035502f, 1.000000f}, 
	{0.995007f, -0.008849f, 0.058349f, 0.000000f, -0.004311f, 0.991395f, 0.076640f, 0.000000f, -0.039360f, -0.054649f, 1.007206f, 0.000000f, 0.084851f, 0.105757f, -0.090920f, 1.000000f}, 

	{1.000000f, -0.000005f, 0.000764f, 0.000000f, -0.000005f, 0.999908f, 0.013563f, 0.000000f, -0.000764f, -0.013563f, 0.999908f, 0.000000f, 0.000004f, 0.000077f, -0.005735f, 1.000000f}, 
	{0.999035f, -0.004290f, 0.057539f, 0.000000f, 0.000114f, 0.996308f, 0.081406f, 0.000000f, -0.030692f, -0.049270f, 0.998871f, 0.000000f, 0.042262f, 0.053580f, -0.060212f, 1.000000f}, 
	{0.989946f, -0.017557f, 0.101142f, 0.000000f, -0.009114f, 0.982430f, 0.133082f, 0.000000f, -0.068961f, -0.095513f, 1.008148f, 0.000000f, 0.150641f, 0.187939f, -0.148070f, 1.000000f}, 

	{0.999999f, -0.000011f, 0.001126f, 0.000000f, -0.000011f, 0.999800f, 0.019995f, 0.000000f, -0.001126f, -0.019995f, 0.999799f, 0.000000f, 0.000008f, 0.000140f, -0.008454f, 1.000000f}, 
	{0.997952f, -0.007571f, 0.084671f, 0.000000f, -0.000582f, 0.993004f, 0.119903f, 0.000000f, -0.045240f, -0.072528f, 0.996475f, 0.000000f, 0.062911f, 0.080092f, -0.086136f, 1.000000f}, 
	{0.982915f, -0.029436f, 0.148231f, 0.000000f, -0.016113f, 0.969815f, 0.195456f, 0.000000f, -0.102324f, -0.141271f, 1.004673f, 0.000000f, 0.226773f, 0.283013f, -0.201005f, 1.000000f}, 

	{0.999999f, -0.000020f, 0.001500f, 0.000000f, -0.000020f, 0.999645f, 0.026646f, 0.000000f, -0.001500f, -0.026646f, 0.999644f, 0.000000f, 0.000013f, 0.000225f, -0.011266f, 1.000000f}, 
	{0.996410f, -0.011801f, 0.112575f, 0.000000f, -0.001810f, 0.988542f, 0.159581f, 0.000000f, -0.060261f, -0.096458f, 0.992743f, 0.000000f, 0.084649f, 0.108182f, -0.111120f, 1.000000f}, 
	{0.974058f, -0.044166f, 0.196117f, 0.000000f, -0.025232f, 0.953812f, 0.259208f, 0.000000f, -0.137207f, -0.188702f, 0.995939f, 0.000000f, 0.308627f, 0.384973f, -0.243319f, 1.000000f}, 

	{0.999998f, -0.000031f, 0.001862f, 0.000000f, -0.000031f, 0.999453f, 0.033076f, 0.000000f, -0.001862f, -0.033076f, 0.999451f, 0.000000f, 0.000018f, 0.000324f, -0.013984f, 1.000000f}, 
	{0.994513f, -0.016695f, 0.139360f, 0.000000f, -0.003485f, 0.983223f, 0.197761f, 0.000000f, -0.074744f, -0.119437f, 0.987926f, 0.000000f, 0.106012f, 0.135929f, -0.133476f, 1.000000f}, 
	{0.963873f, -0.060865f, 0.241567f, 0.000000f, -0.035970f, 0.935370f, 0.320050f, 0.000000f, -0.171358f, -0.234633f, 0.982359f, 0.000000f, 0.391071f, 0.487176f, -0.271718f, 1.000000f}, 

	{0.999998f, -0.000043f, 0.002187f, 0.000000f, -0.000042f, 0.999245f, 0.038843f, 0.000000f, -0.002187f, -0.038843f, 0.999243f, 0.000000f, 0.000024f, 0.000428f, -0.016422f, 1.000000f}, 
	{0.992472f, -0.021750f, 0.163199f, 0.000000f, -0.005397f, 0.977616f, 0.231825f, 0.000000f, -0.087692f, -0.139890f, 0.982600f, 0.000000f, 0.125449f, 0.161270f, -0.152005f, 1.000000f}, 
	{0.953205f, -0.078109f, 0.281763f, 0.000000f, -0.047407f, 0.916100f, 0.374131f, 0.000000f, -0.202593f, -0.276100f, 0.965620f, 0.000000f, 0.468670f, 0.582737f, -0.286289f, 1.000000f}, 

	{0.999997f, -0.000053f, 0.002450f, 0.000000f, -0.000053f, 0.999053f, 0.043507f, 0.000000f, -0.002450f, -0.043507f, 0.999050f, 0.000000f, 0.000029f, 0.000522f, -0.018393f, 1.000000f}, 
	{0.990588f, -0.026296f, 0.182330f, 0.000000f, -0.007224f, 0.972507f, 0.259226f, 0.000000f, -0.098127f, -0.156304f, 0.977600f, 0.000000f, 0.141349f, 0.182048f, -0.165923f, 1.000000f}, 
	{0.943181f, -0.094063f, 0.314358f, 0.000000f, -0.058283f, 0.898130f, 0.418126f, 0.000000f, -0.228862f, -0.310447f, 0.948489f, 0.000000f, 0.535927f, 0.664935f, -0.290166f, 1.000000f}, 

	{0.999997f, -0.000061f, 0.002625f, 0.000000f, -0.000061f, 0.998912f, 0.046628f, 0.000000f, -0.002625f, -0.046628f, 0.998909f, 0.000000f, 0.000033f, 0.000590f, -0.019713f, 1.000000f}, 
	{0.989212f, -0.029565f, 0.195052f, 0.000000f, -0.008587f, 0.968803f, 0.277480f, 0.000000f, -0.105089f, -0.167217f, 0.973910f, 0.000000f, 0.152074f, 0.196082f, -0.174699f, 1.000000f}, 
	{0.935099f, -0.106659f, 0.337416f, 0.000000f, -0.067124f, 0.883882f, 0.449164f, 0.000000f, -0.248265f, -0.335328f, 0.934424f, 0.000000f, 0.587464f, 0.727464f, -0.288601f, 1.000000f}, 

	{0.999996f, -0.000064f, 0.002689f, 0.000000f, -0.000064f, 0.998859f, 0.047766f, 0.000000f, -0.002689f, -0.047766f, 0.998855f, 0.000000f, 0.000035f, 0.000616f, -0.020194f, 1.000000f}, 
	{0.988687f, -0.030802f, 0.199674f, 0.000000f, -0.009112f, 0.967395f, 0.284118f, 0.000000f, -0.107623f, -0.171182f, 0.972496f, 0.000000f, 0.156002f, 0.201225f, -0.177791f, 1.000000f}, 
	{0.930283f, -0.113820f, 0.349187f, 0.000000f, -0.072425f, 0.875794f, 0.464595f, 0.000000f, -0.258992f, -0.348561f, 0.927021f, 0.000000f, 0.618084f, 0.764393f, -0.287484f, 1.000000f}, 

	{0.999997f, -0.000055f, 0.002481f, 0.000000f, -0.000055f, 0.999028f, 0.044072f, 0.000000f, -0.002481f, -0.044072f, 0.999025f, 0.000000f, 0.000030f, 0.000534f, -0.018632f, 1.000000f}, 
	{0.989241f, -0.029064f, 0.194972f, 0.000000f, -0.008546f, 0.969512f, 0.274987f, 0.000000f, -0.104942f, -0.164718f, 0.974353f, 0.000000f, 0.152039f, 0.195616f, -0.174132f, 1.000000f}, 
	{0.929838f, -0.113061f, 0.348377f, 0.000000f, -0.072923f, 0.876904f, 0.460070f, 0.000000f, -0.259379f, -0.345947f, 0.929819f, 0.000000f, 0.623211f, 0.769788f, -0.291945f, 1.000000f}, 

	{0.999998f, -0.000033f, 0.001924f, 0.000000f, -0.000033f, 0.999416f, 0.034169f, 0.000000f, -0.001924f, -0.034169f, 0.999414f, 0.000000f, 0.000019f, 0.000343f, -0.014446f, 1.000000f}, 
	{0.990676f, -0.024610f, 0.182131f, 0.000000f, -0.007098f, 0.974869f, 0.250232f, 0.000000f, -0.097657f, -0.147214f, 0.979050f, 0.000000f, 0.141331f, 0.180570f, -0.163795f, 1.000000f}, 
	{0.933755f, -0.104157f, 0.335613f, 0.000000f, -0.068619f, 0.887482f, 0.435067f, 0.000000f, -0.249537f, -0.326243f, 0.942517f, 0.000000f, 0.602475f, 0.742666f, -0.301558f, 1.000000f}, 

	{0.999999f, -0.000011f, 0.001116f, 0.000000f, -0.000011f, 0.999803f, 0.019826f, 0.000000f, -0.001116f, -0.019826f, 0.999803f, 0.000000f, 0.000008f, 0.000139f, -0.008382f, 1.000000f}, 
	{0.992603f, -0.018734f, 0.163008f, 0.000000f, -0.005200f, 0.981764f, 0.213778f, 0.000000f, -0.086899f, -0.121476f, 0.985080f, 0.000000f, 0.125689f, 0.158874f, -0.147482f, 1.000000f}, 
	{0.940823f, -0.089771f, 0.312714f, 0.000000f, -0.060893f, 0.904212f, 0.393569f, 0.000000f, -0.231433f, -0.292800f, 0.961140f, 0.000000f, 0.560978f, 0.689211f, -0.310840f, 1.000000f}, 

	{1.000000f, -0.000000f, 0.000159f, 0.000000f, -0.000000f, 0.999996f, 0.002817f, 0.000000f, -0.000159f, -0.002817f, 0.999996f, 0.000000f, 0.000001f, 0.000010f, -0.001191f, 1.000000f}, 
	{0.994642f, -0.012687f, 0.139516f, 0.000000f, -0.003269f, 0.988566f, 0.169615f, 0.000000f, -0.073806f, -0.090370f, 0.990995f, 0.000000f, 0.106925f, 0.133343f, -0.125999f, 1.000000f}, 
	{0.949658f, -0.072824f, 0.281636f, 0.000000f, -0.051320f, 0.923502f, 0.339742f, 0.000000f, -0.207212f, -0.249262f, 0.981313f, 0.000000f, 0.504518f, 0.616652f, -0.313412f, 1.000000f}, 

	{1.000000f, -0.000006f, -0.000849f, 0.000000f, -0.000006f, 0.999886f, -0.015081f, 0.000000f, 0.000849f, 0.015081f, 0.999886f, 0.000000f, 0.000000f, 0.000006f, 0.006377f, 1.000000f}, 
	{0.996487f, -0.007451f, 0.113685f, 0.000000f, -0.001635f, 0.994053f, 0.121870f, 0.000000f, -0.059542f, -0.056878f, 0.995709f, 0.000000f, 0.086812f, 0.106654f, -0.100645f, 1.000000f}, 
	{0.958977f, -0.055940f, 0.244740f, 0.000000f, -0.041348f, 0.942217f, 0.278219f, 0.000000f, -0.179129f, -0.199706f, 0.999279f, 0.000000f, 0.439034f, 0.532819f, -0.304445f, 1.000000f}, 

	{0.999998f, -0.000029f, -0.001807f, 0.000000f, -0.000029f, 0.999485f, -0.032087f, 0.000000f, 0.001807f, 0.032087f, 0.999483f, 0.000000f, 0.000007f, 0.000128f, 0.013569f, 1.000000f}, 
	{0.997941f, -0.003603f, 0.087666f, 0.000000f, -0.000484f, 0.997603f, 0.074793f, 0.000000f, -0.045290f, -0.024092f, 0.998674f, 0.000000f, 0.067036f, 0.081187f, -0.073421f, 1.000000f}, 
	{0.967735f, -0.041110f, 0.204973f, 0.000000f, -0.032124f, 0.958108f, 0.214287f, 0.000000f, -0.149590f, -0.148703f, 1.012544f, 0.000000f, 0.370501f, 0.445856f, -0.282303f, 1.000000f}, 

	{0.999997f, -0.000061f, -0.002614f, 0.000000f, -0.000061f, 0.998922f, -0.046424f, 0.000000f, 0.002614f, 0.046424f, 0.998918f, 0.000000f, 0.000018f, 0.000326f, 0.019632f, 1.000000f}, 
	{0.998933f, -0.001272f, 0.063682f, 0.000000f, 0.000151f, 0.999242f, 0.032701f, 0.000000f, -0.032245f, 0.004840f, 0.999928f, 0.000000f, 0.049177f, 0.058913f, -0.047045f, 1.000000f}, 
	{0.975212f, -0.029482f, 0.165831f, 0.000000f, -0.024402f, 0.970057f, 0.153823f, 0.000000f, -0.121105f, -0.101149f, 1.020199f, 0.000000f, 0.304726f, 0.363597f, -0.249246f, 1.000000f}, 

	{0.999995f, -0.000089f, -0.003171f, 0.000000f, -0.000089f, 0.998413f, -0.056322f, 0.000000f, 0.003171f, 0.056322f, 0.998408f, 0.000000f, 0.000029f, 0.000513f, 0.023819f, 1.000000f}, 
	{0.999503f, -0.000200f, 0.043972f, 0.000000f, 0.000376f, 0.999536f, -0.000093f, 0.000000f, -0.021601f, 0.026784f, 1.000008f, 0.000000f, 0.034704f, 0.041391f, -0.024814f, 1.000000f}, 
	{0.981026f, -0.021362f, 0.131176f, 0.000000f, -0.018519f, 0.978037f, 0.103073f, 0.000000f, -0.096224f, -0.062012f, 1.022873f, 0.000000f, 0.247159f, 0.292970f, -0.211214f, 1.000000f}, 

	{0.999994f, -0.000102f, -0.003379f, 0.000000f, -0.000101f, 0.998198f, -0.060013f, 0.000000f, 0.003379f, 0.060013f, 0.998192f, 0.000000f, 0.000033f, 0.000594f, 0.025380f, 1.000000f}, 
	{0.999762f, 0.000084f, 0.030750f, 0.000000f, 0.000383f, 0.999327f, -0.019323f, 0.000000f, -0.014549f, 0.038644f, 0.999716f, 0.000000f, 0.025006f, 0.029905f, -0.010331f, 1.000000f}, 
	{0.985068f, -0.016440f, 0.105014f, 0.000000f, -0.014491f, 0.982771f, 0.068403f, 0.000000f, -0.077466f, -0.036115f, 1.022287f, 0.000000f, 0.202819f, 0.239793f, -0.176753f, 1.000000f}, 

	{0.999996f, -0.000079f, -0.002987f, 0.000000f, -0.000079f, 0.998592f, -0.053051f, 0.000000f, 0.002987f, 0.053051f, 0.998587f, 0.000000f, 0.000025f, 0.000447f, 0.022435f, 1.000000f}, 
	{0.999821f, -0.000080f, 0.026346f, 0.000000f, 0.000367f, 0.999371f, -0.018077f, 0.000000f, -0.012420f, 0.034679f, 0.999853f, 0.000000f, 0.021462f, 0.025805f, -0.008196f, 1.000000f}, 
	{0.987335f, -0.014518f, 0.091411f, 0.000000f, -0.012206f, 0.984913f, 0.058751f, 0.000000f, -0.067452f, -0.030829f, 1.020350f, 0.000000f, 0.176446f, 0.209659f, -0.155791f, 1.000000f}, 

	{0.999998f, -0.000034f, -0.001953f, 0.000000f, -0.000034f, 0.999398f, -0.034685f, 0.000000f, 0.001953f, 0.034685f, 0.999396f, 0.000000f, 0.000009f, 0.000157f, 0.014668f, 1.000000f}, 
	{0.999491f, -0.001097f, 0.043387f, 0.000000f, 0.000373f, 0.999337f, 0.019419f, 0.000000f, -0.021880f, 0.006243f, 1.000343f, 0.000000f, 0.033402f, 0.040461f, -0.031287f, 1.000000f}, 
	{0.987163f, -0.016420f, 0.104295f, 0.000000f, -0.012126f, 0.983698f, 0.091457f, 0.000000f, -0.074193f, -0.056334f, 1.016736f, 0.000000f, 0.181412f, 0.218365f, -0.162527f, 1.000000f}, 

	{1.000000f, -0.000002f, -0.000490f, 0.000000f, -0.000002f, 0.999962f, -0.008701f, 0.000000f, 0.000490f, 0.008701f, 0.999962f, 0.000000f, -0.000000f, -0.000008f, 0.003679f, 1.000000f}, 
	{0.997921f, -0.005485f, 0.086860f, 0.000000f, -0.000529f, 0.995746f, 0.095696f, 0.000000f, -0.045541f, -0.046179f, 0.997939f, 0.000000f, 0.065579f, 0.081137f, -0.079545f, 1.000000f}, 
	{0.980110f, -0.029299f, 0.161141f, 0.000000f, -0.018983f, 0.970685f, 0.183952f, 0.000000f, -0.111809f, -0.125648f, 1.008466f, 0.000000f, 0.256334f, 0.313542f, -0.216136f, 1.000000f}, 

	{0.999999f, -0.000013f, 0.001188f, 0.000000f, -0.000012f, 0.999778f, 0.021092f, 0.000000f, -0.001188f, -0.021092f, 0.999777f, 0.000000f, 0.000009f, 0.000153f, -0.008918f, 1.000000f}, 
	{0.993955f, -0.016319f, 0.147136f, 0.000000f, -0.003947f, 0.984199f, 0.195883f, 0.000000f, -0.078477f, -0.112757f, 0.987917f, 0.000000f, 0.112636f, 0.142728f, -0.136270f, 1.000000f}, 
	{0.960811f, -0.062656f, 0.255014f, 0.000000f, -0.039185f, 0.934036f, 0.325014f, 0.000000f, -0.180661f, -0.234476f, 0.980722f, 0.000000f, 0.415226f, 0.513364f, -0.278913f, 1.000000f}, 

	{0.999996f, -0.000073f, 0.002864f, 0.000000f, -0.000073f, 0.998705f, 0.050867f, 0.000000f, -0.002864f, -0.050867f, 0.998701f, 0.000000f, 0.000039f, 0.000690f, -0.021504f, 1.000000f}, 
	{0.986947f, -0.034773f, 0.214252f, 0.000000f, -0.010865f, 0.962890f, 0.304609f, 0.000000f, -0.115612f, -0.183203f, 0.967869f, 0.000000f, 0.168504f, 0.217512f, -0.187111f, 1.000000f}, 
	{0.927465f, -0.119279f, 0.360875f, 0.000000f, -0.075494f, 0.869452f, 0.481884f, 0.000000f, -0.266333f, -0.359194f, 0.916507f, 0.000000f, 0.630584f, 0.779454f, -0.277910f, 1.000000f}, 

	{0.999991f, -0.000166f, 0.004324f, 0.000000f, -0.000166f, 0.997046f, 0.076804f, 0.000000f, -0.004324f, -0.076804f, 0.997037f, 0.000000f, 0.000082f, 0.001464f, -0.032467f, 1.000000f}, 
	{0.977394f, -0.058790f, 0.278706f, 0.000000f, -0.020880f, 0.934295f, 0.406900f, 0.000000f, -0.151908f, -0.247579f, 0.939645f, 0.000000f, 0.226030f, 0.294897f, -0.223448f, 1.000000f}, 
	{0.882114f, -0.193596f, 0.455748f, 0.000000f, -0.126100f, 0.782990f, 0.623652f, 0.000000f, -0.353422f, -0.475344f, 0.814068f, 0.000000f, 0.867264f, 1.059999f, -0.175539f, 1.000000f}, 

	{0.999986f, -0.000255f, 0.005356f, 0.000000f, -0.000255f, 0.995466f, 0.095119f, 0.000000f, -0.005356f, -0.095119f, 0.995451f, 0.000000f, 0.000123f, 0.002183f, -0.040206f, 1.000000f}, 
	{0.967087f, -0.083094f, 0.332434f, 0.000000f, -0.032009f, 0.905134f, 0.489357f, 0.000000f, -0.182651f, -0.297339f, 0.909532f, 0.000000f, 0.277223f, 0.362861f, -0.243707f, 1.000000f}, 
	{0.831667f, -0.271686f, 0.525196f, 0.000000f, -0.183282f, 0.691277f, 0.728814f, 0.000000f, -0.428437f, -0.564592f, 0.691381f, 0.000000f, 1.087907f, 1.305854f, 0.010283f, 1.000000f}, 

	{0.999983f, -0.000294f, 0.005746f, 0.000000f, -0.000294f, 0.994778f, 0.102059f, 0.000000f, -0.005746f, -0.102059f, 0.994762f, 0.000000f, 0.000140f, 0.002494f, -0.043139f, 1.000000f}, 
	{0.958812f, -0.100352f, 0.369130f, 0.000000f, -0.041053f, 0.884793f, 0.540585f, 0.000000f, -0.203623f, -0.325684f, 0.886851f, 0.000000f, 0.313793f, 0.409674f, -0.252037f, 1.000000f}, 
	{0.786455f, -0.335620f, 0.566931f, 0.000000f, -0.235022f, 0.616336f, 0.789775f, 0.000000f, -0.482668f, -0.619754f, 0.581230f, 0.000000f, 1.261866f, 1.488571f, 0.211270f, 1.000000f}, 

	{0.999985f, -0.000266f, 0.005467f, 0.000000f, -0.000266f, 0.995275f, 0.097100f, 0.000000f, -0.005467f, -0.097100f, 0.995260f, 0.000000f, 0.000128f, 0.002270f, -0.041043f, 1.000000f}, 
	{0.955608f, -0.104343f, 0.383130f, 0.000000f, -0.044524f, 0.880860f, 0.552979f, 0.000000f, -0.211089f, -0.329450f, 0.880252f, 0.000000f, 0.327628f, 0.425448f, -0.254208f, 1.000000f}, 
	{0.757644f, -0.370158f, 0.586735f, 0.000000f, -0.268126f, 0.576800f, 0.811459f, 0.000000f, -0.512395f, -0.644116f, 0.519159f, 0.000000f, 1.368968f, 1.600840f, 0.337966f, 1.000000f}, 

	{0.999989f, -0.000197f, 0.004701f, 0.000000f, -0.000197f, 0.996508f, 0.083493f, 0.000000f, -0.004701f, -0.083493f, 0.996497f, 0.000000f, 0.000096f, 0.001710f, -0.035293f, 1.000000f}, 
	{0.958270f, -0.095061f, 0.373905f, 0.000000f, -0.041511f, 0.892910f, 0.528880f, 0.000000f, -0.204902f, -0.311474f, 0.890683f, 0.000000f, 0.317496f, 0.409786f, -0.252816f, 1.000000f}, 
	{0.752743f, -0.368544f, 0.591101f, 0.000000f, -0.273671f, 0.580406f, 0.803808f, 0.000000f, -0.517347f, -0.642933f, 0.524441f, 0.000000f, 1.397699f, 1.638211f, 0.331900f, 1.000000f}, 

	{0.999994f, -0.000112f, 0.003555f, 0.000000f, -0.000112f, 0.998005f, 0.063133f, 0.000000f, -0.003555f, -0.063133f, 0.997999f, 0.000000f, 0.000057f, 0.001020f, -0.026689f, 1.000000f}, 
	{0.964840f, -0.077237f, 0.346990f, 0.000000f, -0.034230f, 0.914966f, 0.476906f, 0.000000f, -0.188598f, -0.276412f, 0.912007f, 0.000000f, 0.290072f, 0.371336f, -0.246197f, 1.000000f}, 
	{0.768715f, -0.336577f, 0.583010f, 0.000000f, -0.255138f, 0.619816f, 0.772621f, 0.000000f, -0.501622f, -0.618791f, 0.585603f, 0.000000f, 1.357724f, 1.605787f, 0.211772f, 1.000000f}, 

	{0.999998f, -0.000040f, 0.002135f, 0.000000f, -0.000041f, 0.999280f, 0.037929f, 0.000000f, -0.002135f, -0.037929f, 0.999278f, 0.000000f, 0.000023f, 0.000410f, -0.016035f, 1.000000f}, 
	{0.973562f, -0.055298f, 0.304832f, 0.000000f, -0.024730f, 0.941326f, 0.401985f, 0.000000f, -0.164058f, -0.227007f, 0.938423f, 0.000000f, 0.249541f, 0.315792f, -0.230120f, 1.000000f}, 
	{0.797748f, -0.285643f, 0.559799f, 0.000000f, -0.221709f, 0.680928f, 0.717443f, 0.000000f, -0.469415f, -0.572358f, 0.679858f, 0.000000f, 1.267975f, 1.514476f, 0.031512f, 1.000000f}, 

	{1.000000f, -0.000003f, 0.000552f, 0.000000f, -0.000003f, 0.999952f, 0.009807f, 0.000000f, -0.000552f, -0.009807f, 0.999952f, 0.000000f, 0.000003f, 0.000048f, -0.004146f, 1.000000f}, 
	{0.982635f, -0.033651f, 0.250313f, 0.000000f, -0.015102f, 0.966428f, 0.309586f, 0.000000f, -0.133260f, -0.166509f, 0.964130f, 0.000000f, 0.200267f, 0.249463f, -0.200655f, 1.000000f}, 
	{0.834881f, -0.223919f, 0.516330f, 0.000000f, -0.179319f, 0.753437f, 0.634714f, 0.000000f, -0.421023f, -0.501242f, 0.788539f, 0.000000f, 1.133347f, 1.362214f, -0.161131f, 1.000000f}, 

	{0.999999f, -0.000010f, -0.001086f, 0.000000f, -0.000010f, 0.999814f, -0.019287f, 0.000000f, 0.001086f, 0.019287f, 0.999813f, 0.000000f, 0.000001f, 0.000025f, 0.008156f, 1.000000f}, 
	{0.990522f, -0.015928f, 0.187204f, 0.000000f, -0.007100f, 0.985835f, 0.206219f, 0.000000f, -0.098422f, -0.099085f, 0.984394f, 0.000000f, 0.146676f, 0.179076f, -0.155980f, 1.000000f}, 
	{0.874802f, -0.160452f, 0.449913f, 0.000000f, -0.134263f, 0.826312f, 0.523839f, 0.000000f, -0.357964f, -0.406565f, 0.892554f, 0.000000f, 0.962152f, 1.156226f, -0.319131f, 1.000000f}, 

	{0.999996f, -0.000063f, -0.002669f, 0.000000f, -0.000063f, 0.998876f, -0.047401f, 0.000000f, 0.002669f, 0.047401f, 0.998872f, 0.000000f, 0.000019f, 0.000343f, 0.020046f, 1.000000f}, 
	{0.996193f, -0.004382f, 0.120177f, 0.000000f, -0.001857f, 0.996997f, 0.099404f, 0.000000f, -0.062019f, -0.029774f, 0.996369f, 0.000000f, 0.093047f, 0.111113f, -0.097469f, 1.000000f}, 
	{0.912480f, -0.103819f, 0.362384f, 0.000000f, -0.092401f, 0.889497f, 0.389521f, 0.000000f, -0.283842f, -0.294437f, 0.975641f, 0.000000f, 0.767417f, 0.915061f, -0.406392f, 1.000000f}, 

	{0.999992f, -0.000149f, -0.004087f, 0.000000f, -0.000148f, 0.997362f, -0.072592f, 0.000000f, 0.004088f, 0.072592f, 0.997353f, 0.000000f, 0.000051f, 0.000912f, 0.030702f, 1.000000f}, 
	{0.999259f, 0.000459f, 0.054463f, 0.000000f, 0.000284f, 0.999646f, -0.002766f, 0.000000f, -0.026687f, 0.035922f, 0.999542f, 0.000000f, 0.043248f, 0.050927f, -0.029977f, 1.000000f}, 
	{0.943983f, -0.060289f, 0.260481f, 0.000000f, -0.058179f, 0.936077f, 0.242059f, 0.000000f, -0.204294f, -0.175320f, 1.027672f, 0.000000f, 0.565714f, 0.664905f, -0.406170f, 1.000000f}, 

	{0.999986f, -0.000244f, -0.005233f, 0.000000f, -0.000244f, 0.995672f, -0.092937f, 0.000000f, 0.005233f, 0.092937f, 0.995658f, 0.000000f, 0.000088f, 0.001570f, 0.039309f, 1.000000f}, 
	{0.999989f, -0.000214f, -0.004631f, 0.000000f, -0.000227f, 0.995723f, -0.092221f, 0.000000f, 0.004917f, 0.092562f, 0.995711f, 0.000000f, 0.000522f, 0.002059f, 0.038644f, 1.000000f}, 
	{0.967192f, -0.032314f, 0.154600f, 0.000000f, -0.033823f, 0.963946f, 0.095760f, 0.000000f, -0.126182f, -0.061741f, 1.046751f, 0.000000f, 0.374269f, 0.432285f, -0.324740f, 1.000000f}, 

	{0.999982f, -0.000320f, -0.005998f, 0.000000f, -0.000320f, 0.994309f, -0.106532f, 0.000000f, 0.005998f, 0.106532f, 0.994291f, 0.000000f, 0.000119f, 0.002108f, 0.045061f, 1.000000f}, 
	{0.999197f, -0.003896f, -0.052138f, 0.000000f, -0.002287f, 0.988823f, -0.161382f, 0.000000f, 0.030240f, 0.135170f, 0.988451f, 0.000000f, -0.032566f, -0.033897f, 0.098557f, 1.000000f}, 
	{0.982088f, -0.018126f, 0.056632f, 0.000000f, -0.019036f, 0.976109f, -0.033648f, 0.000000f, -0.056453f, 0.034459f, 1.039167f, 0.000000f, 0.207772f, 0.236905f, -0.188956f, 1.000000f}, 

	{0.999980f, -0.000351f, -0.006277f, 0.000000f, -0.000351f, 0.993766f, -0.111485f, 0.000000f, 0.006277f, 0.111485f, 0.993746f, 0.000000f, 0.000131f, 0.002324f, 0.047157f, 1.000000f}, 
	{0.998002f, -0.007494f, -0.083547f, 0.000000f, -0.004437f, 0.983205f, -0.203266f, 0.000000f, 0.046875f, 0.159304f, 0.982160f, 0.000000f, -0.053955f, -0.056643f, 0.139239f, 1.000000f}, 
	{0.990468f, -0.012699f, -0.022053f, 0.000000f, -0.011393f, 0.979339f, -0.131317f, 0.000000f, -0.001204f, 0.103988f, 1.017134f, 0.000000f, 0.076429f, 0.088216f, -0.038932f, 1.000000f}, 

	{0.999981f, -0.000337f, -0.006147f, 0.000000f, -0.000337f, 0.994023f, -0.109174f, 0.000000f, 0.006147f, 0.109174f, 0.994004f, 0.000000f, 0.000125f, 0.002222f, 0.046179f, 1.000000f}, 
	{0.997456f, -0.008642f, -0.094763f, 0.000000f, -0.005329f, 0.981776f, -0.214411f, 0.000000f, 0.052693f, 0.163989f, 0.980202f, 0.000000f, -0.061631f, -0.065255f, 0.152492f, 1.000000f}, 
	{0.995080f, -0.010108f, -0.071732f, 0.000000f, -0.007406f, 0.980898f, -0.187516f, 0.000000f, 0.034789f, 0.143442f, 0.994516f, 0.000000f, -0.013718f, -0.012143f, 0.082752f, 1.000000f}, 

	{0.999983f, -0.000298f, -0.005783f, 0.000000f, -0.000298f, 0.994712f, -0.102701f, 0.000000f, 0.005783f, 0.102701f, 0.994695f, 0.000000f, 0.000110f, 0.001948f, 0.043440f, 1.000000f}, 
	{0.997735f, -0.007475f, -0.089620f, 0.000000f, -0.004852f, 0.983935f, -0.202288f, 0.000000f, 0.049799f, 0.154629f, 0.982262f, 0.000000f, -0.058428f, -0.062656f, 0.143159f, 1.000000f}, 
	{0.997969f, -0.007324f, -0.092022f, 0.000000f, -0.004653f, 0.984024f, -0.205092f, 0.000000f, 0.051675f, 0.156789f, 0.980747f, 0.000000f, -0.063425f, -0.068233f, 0.150486f, 1.000000f}, 

	{0.999986f, -0.000243f, -0.005222f, 0.000000f, -0.000243f, 0.995689f, -0.092751f, 0.000000f, 0.005222f, 0.092751f, 0.995676f, 0.000000f, 0.000088f, 0.001563f, 0.039230f, 1.000000f}, 
	{0.998392f, -0.005261f, -0.075645f, 0.000000f, -0.003717f, 0.987839f, -0.176449f, 0.000000f, 0.042179f, 0.136473f, 0.986309f, 0.000000f, -0.049349f, -0.053840f, 0.121506f, 1.000000f}, 
	{0.999570f, -0.004364f, -0.087160f, 0.000000f, -0.002696f, 0.988463f, -0.189904f, 0.000000f, 0.051255f, 0.147004f, 0.979329f, 0.000000f, -0.073599f, -0.081279f, 0.155937f, 1.000000f}, 

	{0.999990f, -0.000181f, -0.004505f, 0.000000f, -0.000180f, 0.996794f, -0.080011f, 0.000000f, 0.004505f, 0.080011f, 0.996784f, 0.000000f, 0.000064f, 0.001132f, 0.033840f, 1.000000f}, 
	{0.999170f, -0.002768f, -0.054370f, 0.000000f, -0.002271f, 0.992385f, -0.139322f, 0.000000f, 0.030665f, 0.111058f, 0.991231f, 0.000000f, -0.035236f, -0.039171f, 0.090608f, 1.000000f}, 
	{1.000102f, -0.001916f, -0.062423f, 0.000000f, -0.001431f, 0.993082f, -0.148748f, 0.000000f, 0.037104f, 0.118599f, 0.986764f, 0.000000f, -0.052582f, -0.059133f, 0.113659f, 1.000000f}, 

	{0.999993f, -0.000120f, -0.003670f, 0.000000f, -0.000120f, 0.997874f, -0.065170f, 0.000000f, 0.003670f, 0.065170f, 0.997867f, 0.000000f, 0.000040f, 0.000717f, 0.027562f, 1.000000f}, 
	{0.999787f, -0.000801f, -0.027361f, 0.000000f, -0.000893f, 0.996432f, -0.093376f, 0.000000f, 0.016099f, 0.079964f, 0.995857f, 0.000000f, -0.016913f, -0.019032f, 0.053666f, 1.000000f}, 
	{0.999601f, -0.000998f, -0.025979f, 0.000000f, -0.001068f, 0.996254f, -0.091754f, 0.000000f, 0.014974f, 0.078633f, 0.996527f, 0.000000f, -0.013846f, -0.015441f, 0.049950f, 1.000000f}, 

	{0.999996f, -0.000068f, -0.002755f, 0.000000f, -0.000067f, 0.998803f, -0.048921f, 0.000000f, 0.002755f, 0.048921f, 0.998799f, 0.000000f, 0.000021f, 0.000369f, 0.020689f, 1.000000f}, 
	{0.999995f, -0.000048f, 0.003751f, 0.000000f, 0.000077f, 0.998999f, -0.041167f, 0.000000f, -0.000660f, 0.044848f, 0.999156f, 0.000000f, 0.004736f, 0.005972f, 0.013789f, 1.000000f}, 
	{0.997539f, -0.002929f, 0.019196f, 0.000000f, -0.002310f, 0.996210f, -0.022986f, 0.000000f, -0.013528f, 0.029516f, 1.005349f, 0.000000f, 0.040285f, 0.048259f, -0.024538f, 1.000000f}, 

	{0.999998f, -0.000029f, -0.001800f, 0.000000f, -0.000029f, 0.999489f, -0.031961f, 0.000000f, 0.001800f, 0.031961f, 0.999487f, 0.000000f, 0.000007f, 0.000127f, 0.013516f, 1.000000f}, 
	{0.999620f, -0.000974f, 0.037271f, 0.000000f, 0.000392f, 0.999401f, 0.014657f, 0.000000f, -0.018735f, 0.007451f, 1.000390f, 0.000000f, 0.028722f, 0.034887f, -0.026203f, 1.000000f}, 
	{0.993500f, -0.008689f, 0.069966f, 0.000000f, -0.005729f, 0.991611f, 0.053276f, 0.000000f, -0.046685f, -0.026022f, 1.010390f, 0.000000f, 0.107106f, 0.129333f, -0.099629f, 1.000000f}, 

	{1.000000f, -0.000006f, -0.000844f, 0.000000f, -0.000006f, 0.999888f, -0.014993f, 0.000000f, 0.000844f, 0.014993f, 0.999887f, 0.000000f, 0.000000f, 0.000006f, 0.006340f, 1.000000f}, 
	{0.998594f, -0.003744f, 0.071467f, 0.000000f, -0.000067f, 0.997354f, 0.071388f, 0.000000f, -0.037228f, -0.030427f, 0.999212f, 0.000000f, 0.053932f, 0.066374f, -0.063936f, 1.000000f}, 
	{0.987309f, -0.018683f, 0.123118f, 0.000000f, -0.011614f, 0.981830f, 0.132621f, 0.000000f, -0.082652f, -0.084940f, 1.009708f, 0.000000f, 0.183314f, 0.223722f, -0.166785f, 1.000000f}, 

	{1.000000f, -0.000000f, 0.000072f, 0.000000f, 0.000000f, 0.999999f, 0.001282f, 0.000000f, -0.000072f, -0.001282f, 0.999999f, 0.000000f, 0.000000f, 0.000004f, -0.000542f, 1.000000f}, 
	{0.996969f, -0.008186f, 0.104619f, 0.000000f, -0.001275f, 0.993015f, 0.126310f, 0.000000f, -0.055239f, -0.066978f, 0.995723f, 0.000000f, 0.079127f, 0.098739f, -0.097591f, 1.000000f}, 
	{0.979101f, -0.032623f, 0.175527f, 0.000000f, -0.019883f, 0.967106f, 0.210696f, 0.000000f, -0.119498f, -0.144018f, 1.002573f, 0.000000f, 0.264987f, 0.326049f, -0.220052f, 1.000000f}, 

	{1.000000f, -0.000007f, 0.000910f, 0.000000f, -0.000007f, 0.999869f, 0.016162f, 0.000000f, -0.000910f, -0.016162f, 0.999869f, 0.000000f, 0.000006f, 0.000101f, -0.006833f, 1.000000f}, 
	{0.994917f, -0.013810f, 0.135063f, 0.000000f, -0.003062f, 0.986968f, 0.176764f, 0.000000f, -0.071879f, -0.100441f, 0.990456f, 0.000000f, 0.102963f, 0.130015f, -0.125947f, 1.000000f}, 
	{0.969349f, -0.049510f, 0.224348f, 0.000000f, -0.030051f, 0.948568f, 0.283421f, 0.000000f, -0.155273f, -0.200064f, 0.989607f, 0.000000f, 0.347708f, 0.430058f, -0.256660f, 1.000000f}, 

	{0.999999f, -0.000024f, 0.001629f, 0.000000f, -0.000023f, 0.999581f, 0.028947f, 0.000000f, -0.001630f, -0.028947f, 0.999580f, 0.000000f, 0.000014f, 0.000258f, -0.012238f, 1.000000f}, 
	{0.992709f, -0.019849f, 0.161230f, 0.000000f, -0.005132f, 0.980163f, 0.220186f, 0.000000f, -0.086277f, -0.129140f, 0.984314f, 0.000000f, 0.124023f, 0.158067f, -0.148334f, 1.000000f}, 
	{0.958838f, -0.067736f, 0.267167f, 0.000000f, -0.041254f, 0.928118f, 0.347185f, 0.000000f, -0.188096f, -0.250129f, 0.972713f, 0.000000f, 0.426792f, 0.529201f, -0.277165f, 1.000000f}, 
}; 

RCubyte g_leafMatrixIndices[] = 
{ 
	0, 1, 2, 
	0, 1, 2, 
	0, 1, 2, 
	0, 1, 2, 
	0, 1, 2, 
	0, 1, 2, 
	0, 1, 2, 
	0, 1, 2, 
	0, 1, 2, 
	0, 1, 2, 
	0, 1, 2, 
	0, 1, 2, 
	0, 1, 2, 
	0, 1, 2, 
	0, 1, 2, 
	0, 1, 2, 
	0, 1, 2, 
	0, 1, 2, 
	0, 1, 2, 
	0, 1, 2, 
	0, 1, 2, 
	0, 1, 2, 
	0, 1, 2, 
	0, 1, 2, 
	0, 1, 2, 
	0, 1, 2, 
	0, 1, 2, 
	0, 1, 2, 
	0, 1, 2, 
	0, 1, 2, 
	0, 1, 2, 
	0, 1, 2, 
	0, 1, 2, 
	0, 1, 2, 
	0, 1, 2, 
	0, 1, 2, 
	0, 1, 2, 
	0, 1, 2, 
	0, 1, 2, 
	0, 1, 2, 
	0, 1, 2, 
	0, 1, 2, 
	0, 1, 2, 
	0, 1, 2, 
	0, 1, 2, 
	0, 1, 2, 
	0, 1, 2, 
	0, 1, 2, 
	0, 1, 2, 
	0, 1, 2, 
	0, 1, 2, 
	0, 1, 2, 
	0, 1, 2, 
	0, 1, 2, 
	0, 1, 2, 
	0, 1, 2, 
	0, 1, 2, 
	0, 1, 2, 
	0, 1, 2, 
	0, 1, 2, 
	0, 1, 2, 
	0, 1, 2, 
	0, 1, 2, 
	0, 1, 2, 
	0, 1, 2, 
	0, 1, 2, 
	0, 1, 2, 
	0, 1, 2, 
	0, 1, 2, 
	0, 1, 2, 
	0, 1, 2, 
	0, 1, 2, 
	0, 1, 2, 
	0, 1, 2, 
	0, 1, 2, 
	0, 1, 2, 
	0, 1, 2, 
	0, 1, 2, 
	0, 1, 2, 
	0, 1, 2, 
	0, 1, 2, 
	0, 1, 2, 
	0, 1, 2, 
	0, 1, 2, 
	0, 1, 2, 
	0, 1, 2, 
	0, 1, 2, 
	0, 1, 2, 
	0, 1, 2, 
	0, 1, 2, 
	0, 1, 2, 
	0, 1, 2, 
	0, 1, 2, 
	0, 1, 2, 
	0, 1, 2, 
	0, 1, 2, 
	0, 1, 2, 
	0, 1, 2, 
	0, 1, 2, 
	0, 1, 2, 
	0, 1, 2, 
	0, 1, 2, 
	0, 1, 2, 
	0, 1, 2, 
	0, 1, 2, 
	0, 1, 2, 
	0, 1, 2, 
	0, 1, 2, 
	0, 1, 2, 
	0, 1, 2, 
	0, 1, 2, 
	0, 1, 2, 
	0, 1, 2, 
	0, 1, 2, 
	0, 1, 2, 
	0, 1, 2, 
	0, 1, 2, 
	0, 1, 2, 
	0, 1, 2, 
	0, 1, 2, 
	0, 1, 2, 
	0, 1, 2, 
	0, 1, 2, 
	0, 1, 2, 
	0, 1, 2, 
	0, 1, 2, 
	0, 1, 2, 
	0, 1, 2, 
	0, 1, 2, 
	0, 1, 2, 
	0, 1, 2, 
	0, 1, 2, 
	0, 1, 2, 
	0, 1, 2, 
	0, 1, 2, 
	0, 1, 2, 
	0, 1, 2, 
	0, 1, 2, 
	0, 1, 2, 
	0, 1, 2, 
	0, 1, 2, 
	0, 1, 2, 
	0, 1, 2, 
	0, 1, 2, 
	0, 1, 2, 
	0, 1, 2, 
	0, 1, 2, 
	0, 1, 2, 
	0, 1, 2, 
	0, 1, 2, 
	0, 1, 2, 
	0, 1, 2, 
	0, 1, 2, 
	0, 1, 2, 
	0, 1, 2, 
	0, 1, 2, 
	0, 1, 2, 
	0, 1, 2, 
	0, 1, 2, 
	0, 1, 2, 
	0, 1, 2, 
	0, 1, 2, 
	0, 1, 2, 
	0, 1, 2, 
	0, 1, 2, 
	0, 1, 2, 
	0, 1, 2, 
	0, 1, 2, 
	0, 1, 2, 
	0, 1, 2, 
	0, 1, 2, 
	0, 1, 2, 
	0, 1, 2, 
	0, 1, 2, 
	0, 1, 2, 
	0, 1, 2, 
	0, 1, 2, 
	0, 1, 2, 
	0, 1, 2, 
	0, 1, 2, 
	0, 1, 2, 
	0, 1, 2, 
	0, 1, 2, 
	0, 1, 2, 
	0, 1, 2, 
	0, 1, 2, 
	0, 1, 2, 
	0, 1, 2, 
	0, 1, 2, 
	0, 1, 2, 
	0, 1, 2, 
	0, 1, 2, 
	0, 1, 2, 
	0, 1, 2, 
	0, 1, 2, 
	0, 1, 2, 
	0, 1, 2, 
	0, 1, 2, 
	0, 1, 2, 
	0, 1, 2, 
	0, 1, 2, 
	0, 1, 2, 
	0, 1, 2, 
	0, 1, 2, 
	0, 1, 2, 
	0, 1, 2, 
	0, 1, 2, 
	0, 1, 2, 
	0, 1, 2, 
	0, 1, 2, 
	0, 1, 2, 
	0, 1, 2, 
	0, 1, 2, 
	0, 1, 2, 
	0, 1, 2, 
	0, 1, 2, 
}; 
